digraph Tree {
node [shape=box, fontname="helvetica"] ;
edge [fontname="helvetica"] ;
0 [label="X[47] <= 0.5\ngini = 0.497\nsamples = 81412\nvalue = [37667, 43745]"] ;
1 [label="gini = 0.0\nsamples = 18739\nvalue = [0, 18739]"] ;
0 -> 1 [labeldistance=2.5, labelangle=45, headlabel="True"] ;
2 [label="X[41] <= 0.5\ngini = 0.48\nsamples = 62673\nvalue = [37667, 25006]"] ;
0 -> 2 [labeldistance=2.5, labelangle=-45, headlabel="False"] ;
3 [label="gini = 0.0\nsamples = 9740\nvalue = [9740, 0]"] ;
2 -> 3 ;
4 [label="X[41] <= 2.5\ngini = 0.498\nsamples = 52933\nvalue = [27927, 25006]"] ;
2 -> 4 ;
5 [label="X[24] <= 1.5\ngini = 0.49\nsamples = 43888\nvalue = [18882, 25006]"] ;
4 -> 5 ;
6 [label="X[33] <= 1.5\ngini = 0.427\nsamples = 31341\nvalue = [9691, 21650]"] ;
5 -> 6 ;
7 [label="X[34] <= 1.5\ngini = 0.389\nsamples = 28061\nvalue = [7417, 20644]"] ;
6 -> 7 ;
8 [label="X[30] <= 1.5\ngini = 0.344\nsamples = 25439\nvalue = [5604, 19835]"] ;
7 -> 8 ;
9 [label="X[31] <= 1.5\ngini = 0.281\nsamples = 20546\nvalue = [3480, 17066]"] ;
8 -> 9 ;
10 [label="X[28] <= 1.5\ngini = 0.21\nsamples = 16650\nvalue = [1984, 14666]"] ;
9 -> 10 ;
11 [label="X[31] <= 0.5\ngini = 0.148\nsamples = 14862\nvalue = [1193, 13669]"] ;
10 -> 11 ;
12 [label="gini = 0.0\nsamples = 236\nvalue = [236, 0]"] ;
11 -> 12 ;
13 [label="X[30] <= 0.5\ngini = 0.122\nsamples = 14626\nvalue = [957, 13669]"] ;
11 -> 13 ;
14 [label="gini = 0.0\nsamples = 232\nvalue = [232, 0]"] ;
13 -> 14 ;
15 [label="X[24] <= 0.5\ngini = 0.096\nsamples = 14394\nvalue = [725, 13669]"] ;
13 -> 15 ;
16 [label="gini = 0.0\nsamples = 135\nvalue = [135, 0]"] ;
15 -> 16 ;
17 [label="X[28] <= 0.5\ngini = 0.079\nsamples = 14259\nvalue = [590, 13669]"] ;
15 -> 17 ;
18 [label="gini = 0.0\nsamples = 82\nvalue = [82, 0]"] ;
17 -> 18 ;
19 [label="X[25] <= 1.5\ngini = 0.069\nsamples = 14177\nvalue = [508, 13669]"] ;
17 -> 19 ;
20 [label="X[42] <= 1.5\ngini = 0.045\nsamples = 13694\nvalue = [312, 13382]"] ;
19 -> 20 ;
21 [label="X[26] <= 1.5\ngini = 0.029\nsamples = 13419\nvalue = [195, 13224]"] ;
20 -> 21 ;
22 [label="X[33] <= 0.5\ngini = 0.017\nsamples = 13213\nvalue = [110, 13103]"] ;
21 -> 22 ;
23 [label="gini = 0.0\nsamples = 29\nvalue = [29, 0]"] ;
22 -> 23 ;
24 [label="X[34] <= 0.5\ngini = 0.012\nsamples = 13184\nvalue = [81, 13103]"] ;
22 -> 24 ;
25 [label="gini = 0.0\nsamples = 25\nvalue = [25, 0]"] ;
24 -> 25 ;
26 [label="X[25] <= 0.5\ngini = 0.008\nsamples = 13159\nvalue = [56, 13103]"] ;
24 -> 26 ;
27 [label="gini = 0.0\nsamples = 18\nvalue = [18, 0]"] ;
26 -> 27 ;
28 [label="X[42] <= 0.5\ngini = 0.006\nsamples = 13141\nvalue = [38, 13103]"] ;
26 -> 28 ;
29 [label="gini = 0.0\nsamples = 3\nvalue = [3, 0]"] ;
28 -> 29 ;
30 [label="X[26] <= 0.5\ngini = 0.005\nsamples = 13138\nvalue = [35, 13103]"] ;
28 -> 30 ;
31 [label="gini = 0.0\nsamples = 3\nvalue = [3, 0]"] ;
30 -> 31 ;
32 [label="X[27] <= 2.5\ngini = 0.005\nsamples = 13135\nvalue = [32, 13103]"] ;
30 -> 32 ;
33 [label="X[36] <= 0.5\ngini = 0.004\nsamples = 13132\nvalue = [29, 13103]"] ;
32 -> 33 ;
34 [label="gini = 0.0\nsamples = 2\nvalue = [2, 0]"] ;
33 -> 34 ;
35 [label="X[35] <= 1.5\ngini = 0.004\nsamples = 13130\nvalue = [27, 13103]"] ;
33 -> 35 ;
36 [label="X[32] <= 0.5\ngini = 0.003\nsamples = 13095\nvalue = [19, 13076]"] ;
35 -> 36 ;
37 [label="X[29] <= 0.5\ngini = 0.002\nsamples = 13080\nvalue = [14, 13066]"] ;
36 -> 37 ;
38 [label="X[38] <= 1.5\ngini = 0.002\nsamples = 13079\nvalue = [13, 13066]"] ;
37 -> 38 ;
39 [label="X[36] <= 2.5\ngini = 0.002\nsamples = 13078\nvalue = [12, 13066]"] ;
38 -> 39 ;
40 [label="X[44] <= 0.5\ngini = 0.002\nsamples = 13077\nvalue = [11, 13066]"] ;
39 -> 40 ;
41 [label="X[43] <= 0.5\ngini = 0.002\nsamples = 13076\nvalue = [10, 13066]"] ;
40 -> 41 ;
42 [label="X[27] <= 1.5\ngini = 0.001\nsamples = 13072\nvalue = [8, 13064]"] ;
41 -> 42 ;
43 [label="X[38] <= 0.5\ngini = 0.0\nsamples = 13018\nvalue = [3, 13015]"] ;
42 -> 43 ;
44 [label="gini = 0.0\nsamples = 12998\nvalue = [0, 12998]"] ;
43 -> 44 ;
45 [label="X[41] <= 1.5\ngini = 0.255\nsamples = 20\nvalue = [3, 17]"] ;
43 -> 45 ;
46 [label="gini = 0.0\nsamples = 17\nvalue = [0, 17]"] ;
45 -> 46 ;
47 [label="gini = 0.0\nsamples = 3\nvalue = [3, 0]"] ;
45 -> 47 ;
48 [label="X[41] <= 1.5\ngini = 0.168\nsamples = 54\nvalue = [5, 49]"] ;
42 -> 48 ;
49 [label="gini = 0.0\nsamples = 49\nvalue = [0, 49]"] ;
48 -> 49 ;
50 [label="gini = 0.0\nsamples = 5\nvalue = [5, 0]"] ;
48 -> 50 ;
51 [label="X[18] <= 409.5\ngini = 0.5\nsamples = 4\nvalue = [2, 2]"] ;
41 -> 51 ;
52 [label="gini = 0.0\nsamples = 2\nvalue = [0, 2]"] ;
51 -> 52 ;
53 [label="gini = 0.0\nsamples = 2\nvalue = [2, 0]"] ;
51 -> 53 ;
54 [label="gini = 0.0\nsamples = 1\nvalue = [1, 0]"] ;
40 -> 54 ;
55 [label="gini = 0.0\nsamples = 1\nvalue = [1, 0]"] ;
39 -> 55 ;
56 [label="gini = 0.0\nsamples = 1\nvalue = [1, 0]"] ;
38 -> 56 ;
57 [label="gini = 0.0\nsamples = 1\nvalue = [1, 0]"] ;
37 -> 57 ;
58 [label="X[41] <= 1.5\ngini = 0.444\nsamples = 15\nvalue = [5, 10]"] ;
36 -> 58 ;
59 [label="gini = 0.0\nsamples = 10\nvalue = [0, 10]"] ;
58 -> 59 ;
60 [label="gini = 0.0\nsamples = 5\nvalue = [5, 0]"] ;
58 -> 60 ;
61 [label="X[41] <= 1.5\ngini = 0.353\nsamples = 35\nvalue = [8, 27]"] ;
35 -> 61 ;
62 [label="gini = 0.0\nsamples = 27\nvalue = [0, 27]"] ;
61 -> 62 ;
63 [label="gini = 0.0\nsamples = 8\nvalue = [8, 0]"] ;
61 -> 63 ;
64 [label="gini = 0.0\nsamples = 3\nvalue = [3, 0]"] ;
32 -> 64 ;
65 [label="X[41] <= 1.5\ngini = 0.485\nsamples = 206\nvalue = [85, 121]"] ;
21 -> 65 ;
66 [label="X[26] <= 2.5\ngini = 0.032\nsamples = 123\nvalue = [2, 121]"] ;
65 -> 66 ;
67 [label="gini = 0.0\nsamples = 121\nvalue = [0, 121]"] ;
66 -> 67 ;
68 [label="gini = 0.0\nsamples = 2\nvalue = [2, 0]"] ;
66 -> 68 ;
69 [label="gini = 0.0\nsamples = 83\nvalue = [83, 0]"] ;
65 -> 69 ;
70 [label="X[41] <= 1.5\ngini = 0.489\nsamples = 275\nvalue = [117, 158]"] ;
20 -> 70 ;
71 [label="X[42] <= 2.5\ngini = 0.048\nsamples = 162\nvalue = [4, 158]"] ;
70 -> 71 ;
72 [label="X[35] <= 1.5\ngini = 0.025\nsamples = 160\nvalue = [2, 158]"] ;
71 -> 72 ;
73 [label="X[43] <= 0.5\ngini = 0.012\nsamples = 159\nvalue = [1, 158]"] ;
72 -> 73 ;
74 [label="gini = 0.0\nsamples = 158\nvalue = [0, 158]"] ;
73 -> 74 ;
75 [label="gini = 0.0\nsamples = 1\nvalue = [1, 0]"] ;
73 -> 75 ;
76 [label="gini = 0.0\nsamples = 1\nvalue = [1, 0]"] ;
72 -> 76 ;
77 [label="gini = 0.0\nsamples = 2\nvalue = [2, 0]"] ;
71 -> 77 ;
78 [label="gini = 0.0\nsamples = 113\nvalue = [113, 0]"] ;
70 -> 78 ;
79 [label="X[41] <= 1.5\ngini = 0.482\nsamples = 483\nvalue = [196, 287]"] ;
19 -> 79 ;
80 [label="X[25] <= 2.5\ngini = 0.127\nsamples = 308\nvalue = [21, 287]"] ;
79 -> 80 ;
81 [label="X[35] <= 1.5\ngini = 0.046\nsamples = 294\nvalue = [7, 287]"] ;
80 -> 81 ;
82 [label="X[26] <= 1.5\ngini = 0.02\nsamples = 290\nvalue = [3, 287]"] ;
81 -> 82 ;
83 [label="X[42] <= 1.5\ngini = 0.007\nsamples = 288\nvalue = [1, 287]"] ;
82 -> 83 ;
84 [label="gini = 0.0\nsamples = 287\nvalue = [0, 287]"] ;
83 -> 84 ;
85 [label="gini = 0.0\nsamples = 1\nvalue = [1, 0]"] ;
83 -> 85 ;
86 [label="gini = 0.0\nsamples = 2\nvalue = [2, 0]"] ;
82 -> 86 ;
87 [label="gini = 0.0\nsamples = 4\nvalue = [4, 0]"] ;
81 -> 87 ;
88 [label="gini = 0.0\nsamples = 14\nvalue = [14, 0]"] ;
80 -> 88 ;
89 [label="gini = 0.0\nsamples = 175\nvalue = [175, 0]"] ;
79 -> 89 ;
90 [label="X[41] <= 1.5\ngini = 0.493\nsamples = 1788\nvalue = [791, 997]"] ;
10 -> 90 ;
91 [label="X[28] <= 2.5\ngini = 0.149\nsamples = 1085\nvalue = [88, 997]"] ;
90 -> 91 ;
92 [label="X[25] <= 1.5\ngini = 0.069\nsamples = 1034\nvalue = [37, 997]"] ;
91 -> 92 ;
93 [label="X[24] <= 0.5\ngini = 0.051\nsamples = 1024\nvalue = [27, 997]"] ;
92 -> 93 ;
94 [label="gini = 0.0\nsamples = 9\nvalue = [9, 0]"] ;
93 -> 94 ;
95 [label="X[26] <= 1.5\ngini = 0.035\nsamples = 1015\nvalue = [18, 997]"] ;
93 -> 95 ;
96 [label="X[35] <= 1.5\ngini = 0.02\nsamples = 1007\nvalue = [10, 997]"] ;
95 -> 96 ;
97 [label="X[42] <= 1.5\ngini = 0.008\nsamples = 1001\nvalue = [4, 997]"] ;
96 -> 97 ;
98 [label="X[36] <= 1.5\ngini = 0.004\nsamples = 999\nvalue = [2, 997]"] ;
97 -> 98 ;
99 [label="X[30] <= 0.5\ngini = 0.002\nsamples = 998\nvalue = [1, 997]"] ;
98 -> 99 ;
100 [label="gini = 0.0\nsamples = 1\nvalue = [1, 0]"] ;
99 -> 100 ;
101 [label="gini = 0.0\nsamples = 997\nvalue = [0, 997]"] ;
99 -> 101 ;
102 [label="gini = 0.0\nsamples = 1\nvalue = [1, 0]"] ;
98 -> 102 ;
103 [label="gini = 0.0\nsamples = 2\nvalue = [2, 0]"] ;
97 -> 103 ;
104 [label="gini = 0.0\nsamples = 6\nvalue = [6, 0]"] ;
96 -> 104 ;
105 [label="gini = 0.0\nsamples = 8\nvalue = [8, 0]"] ;
95 -> 105 ;
106 [label="gini = 0.0\nsamples = 10\nvalue = [10, 0]"] ;
92 -> 106 ;
107 [label="gini = 0.0\nsamples = 51\nvalue = [51, 0]"] ;
91 -> 107 ;
108 [label="gini = 0.0\nsamples = 703\nvalue = [703, 0]"] ;
90 -> 108 ;
109 [label="X[41] <= 1.5\ngini = 0.473\nsamples = 3896\nvalue = [1496, 2400]"] ;
9 -> 109 ;
110 [label="X[31] <= 2.5\ngini = 0.174\nsamples = 2656\nvalue = [256, 2400]"] ;
109 -> 110 ;
111 [label="X[24] <= 0.5\ngini = 0.054\nsamples = 2469\nvalue = [69, 2400]"] ;
110 -> 111 ;
112 [label="gini = 0.0\nsamples = 24\nvalue = [24, 0]"] ;
111 -> 112 ;
113 [label="X[35] <= 1.5\ngini = 0.036\nsamples = 2445\nvalue = [45, 2400]"] ;
111 -> 113 ;
114 [label="X[33] <= 0.5\ngini = 0.024\nsamples = 2430\nvalue = [30, 2400]"] ;
113 -> 114 ;
115 [label="gini = 0.0\nsamples = 8\nvalue = [8, 0]"] ;
114 -> 115 ;
116 [label="X[25] <= 1.5\ngini = 0.018\nsamples = 2422\nvalue = [22, 2400]"] ;
114 -> 116 ;
117 [label="X[28] <= 1.5\ngini = 0.012\nsamples = 2414\nvalue = [14, 2400]"] ;
116 -> 117 ;
118 [label="X[42] <= 1.5\ngini = 0.007\nsamples = 2408\nvalue = [8, 2400]"] ;
117 -> 118 ;
119 [label="X[34] <= 0.5\ngini = 0.005\nsamples = 2406\nvalue = [6, 2400]"] ;
118 -> 119 ;
120 [label="gini = 0.0\nsamples = 2\nvalue = [2, 0]"] ;
119 -> 120 ;
121 [label="X[27] <= 1.5\ngini = 0.003\nsamples = 2404\nvalue = [4, 2400]"] ;
119 -> 121 ;
122 [label="X[26] <= 1.5\ngini = 0.002\nsamples = 2402\nvalue = [2, 2400]"] ;
121 -> 122 ;
123 [label="gini = 0.0\nsamples = 2400\nvalue = [0, 2400]"] ;
122 -> 123 ;
124 [label="gini = 0.0\nsamples = 2\nvalue = [2, 0]"] ;
122 -> 124 ;
125 [label="gini = 0.0\nsamples = 2\nvalue = [2, 0]"] ;
121 -> 125 ;
126 [label="gini = 0.0\nsamples = 2\nvalue = [2, 0]"] ;
118 -> 126 ;
127 [label="gini = 0.0\nsamples = 6\nvalue = [6, 0]"] ;
117 -> 127 ;
128 [label="gini = 0.0\nsamples = 8\nvalue = [8, 0]"] ;
116 -> 128 ;
129 [label="gini = 0.0\nsamples = 15\nvalue = [15, 0]"] ;
113 -> 129 ;
130 [label="gini = 0.0\nsamples = 187\nvalue = [187, 0]"] ;
110 -> 130 ;
131 [label="gini = 0.0\nsamples = 1240\nvalue = [1240, 0]"] ;
109 -> 131 ;
132 [label="X[41] <= 1.5\ngini = 0.491\nsamples = 4893\nvalue = [2124, 2769]"] ;
8 -> 132 ;
133 [label="X[30] <= 2.5\ngini = 0.155\nsamples = 3025\nvalue = [256, 2769]"] ;
132 -> 133 ;
134 [label="X[31] <= 1.5\ngini = 0.064\nsamples = 2863\nvalue = [94, 2769]"] ;
133 -> 134 ;
135 [label="X[24] <= 0.5\ngini = 0.047\nsamples = 2838\nvalue = [69, 2769]"] ;
134 -> 135 ;
136 [label="gini = 0.0\nsamples = 20\nvalue = [20, 0]"] ;
135 -> 136 ;
137 [label="X[35] <= 1.5\ngini = 0.034\nsamples = 2818\nvalue = [49, 2769]"] ;
135 -> 137 ;
138 [label="X[25] <= 1.5\ngini = 0.024\nsamples = 2803\nvalue = [34, 2769]"] ;
137 -> 138 ;
139 [label="X[28] <= 1.5\ngini = 0.014\nsamples = 2788\nvalue = [19, 2769]"] ;
138 -> 139 ;
140 [label="X[26] <= 1.5\ngini = 0.009\nsamples = 2781\nvalue = [12, 2769]"] ;
139 -> 140 ;
141 [label="X[31] <= 0.5\ngini = 0.004\nsamples = 2775\nvalue = [6, 2769]"] ;
140 -> 141 ;
142 [label="gini = 0.0\nsamples = 2\nvalue = [2, 0]"] ;
141 -> 142 ;
143 [label="X[34] <= 0.5\ngini = 0.003\nsamples = 2773\nvalue = [4, 2769]"] ;
141 -> 143 ;
144 [label="gini = 0.0\nsamples = 1\nvalue = [1, 0]"] ;
143 -> 144 ;
145 [label="X[27] <= 1.5\ngini = 0.002\nsamples = 2772\nvalue = [3, 2769]"] ;
143 -> 145 ;
146 [label="X[42] <= 1.5\ngini = 0.001\nsamples = 2771\nvalue = [2, 2769]"] ;
145 -> 146 ;
147 [label="X[33] <= 0.5\ngini = 0.001\nsamples = 2770\nvalue = [1, 2769]"] ;
146 -> 147 ;
148 [label="gini = 0.0\nsamples = 1\nvalue = [1, 0]"] ;
147 -> 148 ;
149 [label="gini = 0.0\nsamples = 2769\nvalue = [0, 2769]"] ;
147 -> 149 ;
150 [label="gini = 0.0\nsamples = 1\nvalue = [1, 0]"] ;
146 -> 150 ;
151 [label="gini = 0.0\nsamples = 1\nvalue = [1, 0]"] ;
145 -> 151 ;
152 [label="gini = 0.0\nsamples = 6\nvalue = [6, 0]"] ;
140 -> 152 ;
153 [label="gini = 0.0\nsamples = 7\nvalue = [7, 0]"] ;
139 -> 153 ;
154 [label="gini = 0.0\nsamples = 15\nvalue = [15, 0]"] ;
138 -> 154 ;
155 [label="gini = 0.0\nsamples = 15\nvalue = [15, 0]"] ;
137 -> 155 ;
156 [label="gini = 0.0\nsamples = 25\nvalue = [25, 0]"] ;
134 -> 156 ;
157 [label="gini = 0.0\nsamples = 162\nvalue = [162, 0]"] ;
133 -> 157 ;
158 [label="gini = 0.0\nsamples = 1868\nvalue = [1868, 0]"] ;
132 -> 158 ;
159 [label="X[41] <= 1.5\ngini = 0.427\nsamples = 2622\nvalue = [1813, 809]"] ;
7 -> 159 ;
160 [label="X[30] <= 1.5\ngini = 0.496\nsamples = 1480\nvalue = [671, 809]"] ;
159 -> 160 ;
161 [label="X[31] <= 1.5\ngini = 0.449\nsamples = 1226\nvalue = [417, 809]"] ;
160 -> 161 ;
162 [label="X[28] <= 1.5\ngini = 0.334\nsamples = 1027\nvalue = [218, 809]"] ;
161 -> 162 ;
163 [label="X[25] <= 1.5\ngini = 0.219\nsamples = 925\nvalue = [116, 809]"] ;
162 -> 163 ;
164 [label="X[34] <= 2.5\ngini = 0.182\nsamples = 900\nvalue = [91, 809]"] ;
163 -> 164 ;
165 [label="X[42] <= 1.5\ngini = 0.147\nsamples = 879\nvalue = [70, 809]"] ;
164 -> 165 ;
166 [label="X[31] <= 0.5\ngini = 0.112\nsamples = 860\nvalue = [51, 809]"] ;
165 -> 166 ;
167 [label="gini = 0.0\nsamples = 14\nvalue = [14, 0]"] ;
166 -> 167 ;
168 [label="X[28] <= 0.5\ngini = 0.084\nsamples = 846\nvalue = [37, 809]"] ;
166 -> 168 ;
169 [label="gini = 0.0\nsamples = 9\nvalue = [9, 0]"] ;
168 -> 169 ;
170 [label="X[24] <= 0.5\ngini = 0.065\nsamples = 837\nvalue = [28, 809]"] ;
168 -> 170 ;
171 [label="gini = 0.0\nsamples = 8\nvalue = [8, 0]"] ;
170 -> 171 ;
172 [label="X[30] <= 0.5\ngini = 0.047\nsamples = 829\nvalue = [20, 809]"] ;
170 -> 172 ;
173 [label="gini = 0.0\nsamples = 8\nvalue = [8, 0]"] ;
172 -> 173 ;
174 [label="X[26] <= 1.5\ngini = 0.029\nsamples = 821\nvalue = [12, 809]"] ;
172 -> 174 ;
175 [label="X[27] <= 1.5\ngini = 0.012\nsamples = 814\nvalue = [5, 809]"] ;
174 -> 175 ;
176 [label="X[37] <= 0.5\ngini = 0.007\nsamples = 812\nvalue = [3, 809]"] ;
175 -> 176 ;
177 [label="X[35] <= 1.5\ngini = 0.005\nsamples = 811\nvalue = [2, 809]"] ;
176 -> 177 ;
178 [label="X[38] <= 0.5\ngini = 0.002\nsamples = 810\nvalue = [1, 809]"] ;
177 -> 178 ;
179 [label="gini = 0.0\nsamples = 809\nvalue = [0, 809]"] ;
178 -> 179 ;
180 [label="gini = 0.0\nsamples = 1\nvalue = [1, 0]"] ;
178 -> 180 ;
181 [label="gini = 0.0\nsamples = 1\nvalue = [1, 0]"] ;
177 -> 181 ;
182 [label="gini = 0.0\nsamples = 1\nvalue = [1, 0]"] ;
176 -> 182 ;
183 [label="gini = 0.0\nsamples = 2\nvalue = [2, 0]"] ;
175 -> 183 ;
184 [label="gini = 0.0\nsamples = 7\nvalue = [7, 0]"] ;
174 -> 184 ;
185 [label="gini = 0.0\nsamples = 19\nvalue = [19, 0]"] ;
165 -> 185 ;
186 [label="gini = 0.0\nsamples = 21\nvalue = [21, 0]"] ;
164 -> 186 ;
187 [label="gini = 0.0\nsamples = 25\nvalue = [25, 0]"] ;
163 -> 187 ;
188 [label="gini = 0.0\nsamples = 102\nvalue = [102, 0]"] ;
162 -> 188 ;
189 [label="gini = 0.0\nsamples = 199\nvalue = [199, 0]"] ;
161 -> 189 ;
190 [label="gini = 0.0\nsamples = 254\nvalue = [254, 0]"] ;
160 -> 190 ;
191 [label="gini = 0.0\nsamples = 1142\nvalue = [1142, 0]"] ;
159 -> 191 ;
192 [label="X[41] <= 1.5\ngini = 0.425\nsamples = 3280\nvalue = [2274, 1006]"] ;
6 -> 192 ;
193 [label="X[30] <= 1.5\ngini = 0.499\nsamples = 1943\nvalue = [937, 1006]"] ;
192 -> 193 ;
194 [label="X[31] <= 1.5\ngini = 0.461\nsamples = 1574\nvalue = [568, 1006]"] ;
193 -> 194 ;
195 [label="X[28] <= 1.5\ngini = 0.377\nsamples = 1345\nvalue = [339, 1006]"] ;
194 -> 195 ;
196 [label="X[25] <= 1.5\ngini = 0.259\nsamples = 1188\nvalue = [182, 1006]"] ;
195 -> 196 ;
197 [label="X[42] <= 1.5\ngini = 0.209\nsamples = 1141\nvalue = [135, 1006]"] ;
196 -> 197 ;
198 [label="X[26] <= 1.5\ngini = 0.175\nsamples = 1114\nvalue = [108, 1006]"] ;
197 -> 198 ;
199 [label="X[33] <= 2.5\ngini = 0.141\nsamples = 1089\nvalue = [83, 1006]"] ;
198 -> 199 ;
200 [label="X[30] <= 0.5\ngini = 0.105\nsamples = 1065\nvalue = [59, 1006]"] ;
199 -> 200 ;
201 [label="gini = 0.0\nsamples = 16\nvalue = [16, 0]"] ;
200 -> 201 ;
202 [label="X[31] <= 0.5\ngini = 0.079\nsamples = 1049\nvalue = [43, 1006]"] ;
200 -> 202 ;
203 [label="gini = 0.0\nsamples = 13\nvalue = [13, 0]"] ;
202 -> 203 ;
204 [label="X[28] <= 0.5\ngini = 0.056\nsamples = 1036\nvalue = [30, 1006]"] ;
202 -> 204 ;
205 [label="gini = 0.0\nsamples = 9\nvalue = [9, 0]"] ;
204 -> 205 ;
206 [label="X[24] <= 0.5\ngini = 0.04\nsamples = 1027\nvalue = [21, 1006]"] ;
204 -> 206 ;
207 [label="gini = 0.0\nsamples = 9\nvalue = [9, 0]"] ;
206 -> 207 ;
208 [label="X[35] <= 1.5\ngini = 0.023\nsamples = 1018\nvalue = [12, 1006]"] ;
206 -> 208 ;
209 [label="X[34] <= 1.5\ngini = 0.018\nsamples = 1015\nvalue = [9, 1006]"] ;
208 -> 209 ;
210 [label="X[43] <= 0.5\ngini = 0.012\nsamples = 1012\nvalue = [6, 1006]"] ;
209 -> 210 ;
211 [label="X[25] <= 0.5\ngini = 0.008\nsamples = 1010\nvalue = [4, 1006]"] ;
210 -> 211 ;
212 [label="gini = 0.0\nsamples = 2\nvalue = [2, 0]"] ;
211 -> 212 ;
213 [label="X[26] <= 0.5\ngini = 0.004\nsamples = 1008\nvalue = [2, 1006]"] ;
211 -> 213 ;
214 [label="gini = 0.0\nsamples = 1\nvalue = [1, 0]"] ;
213 -> 214 ;
215 [label="X[42] <= 0.5\ngini = 0.002\nsamples = 1007\nvalue = [1, 1006]"] ;
213 -> 215 ;
216 [label="gini = 0.0\nsamples = 1\nvalue = [1, 0]"] ;
215 -> 216 ;
217 [label="gini = 0.0\nsamples = 1006\nvalue = [0, 1006]"] ;
215 -> 217 ;
218 [label="gini = 0.0\nsamples = 2\nvalue = [2, 0]"] ;
210 -> 218 ;
219 [label="gini = 0.0\nsamples = 3\nvalue = [3, 0]"] ;
209 -> 219 ;
220 [label="gini = 0.0\nsamples = 3\nvalue = [3, 0]"] ;
208 -> 220 ;
221 [label="gini = 0.0\nsamples = 24\nvalue = [24, 0]"] ;
199 -> 221 ;
222 [label="gini = 0.0\nsamples = 25\nvalue = [25, 0]"] ;
198 -> 222 ;
223 [label="gini = 0.0\nsamples = 27\nvalue = [27, 0]"] ;
197 -> 223 ;
224 [label="gini = 0.0\nsamples = 47\nvalue = [47, 0]"] ;
196 -> 224 ;
225 [label="gini = 0.0\nsamples = 157\nvalue = [157, 0]"] ;
195 -> 225 ;
226 [label="gini = 0.0\nsamples = 229\nvalue = [229, 0]"] ;
194 -> 226 ;
227 [label="gini = 0.0\nsamples = 369\nvalue = [369, 0]"] ;
193 -> 227 ;
228 [label="gini = 0.0\nsamples = 1337\nvalue = [1337, 0]"] ;
192 -> 228 ;
229 [label="X[41] <= 1.5\ngini = 0.392\nsamples = 12547\nvalue = [9191, 3356]"] ;
5 -> 229 ;
230 [label="X[31] <= 1.5\ngini = 0.49\nsamples = 7808\nvalue = [4452, 3356]"] ;
229 -> 230 ;
231 [label="X[30] <= 1.5\ngini = 0.496\nsamples = 6190\nvalue = [2834, 3356]"] ;
230 -> 231 ;
232 [label="X[34] <= 1.5\ngini = 0.437\nsamples = 4954\nvalue = [1598, 3356]"] ;
231 -> 232 ;
233 [label="X[33] <= 1.5\ngini = 0.375\nsamples = 4473\nvalue = [1117, 3356]"] ;
232 -> 233 ;
234 [label="X[28] <= 1.5\ngini = 0.288\nsamples = 4065\nvalue = [709, 3356]"] ;
233 -> 234 ;
235 [label="X[24] <= 2.5\ngini = 0.184\nsamples = 3740\nvalue = [384, 3356]"] ;
234 -> 235 ;
236 [label="X[25] <= 1.5\ngini = 0.117\nsamples = 3580\nvalue = [224, 3356]"] ;
235 -> 236 ;
237 [label="X[31] <= 0.5\ngini = 0.085\nsamples = 3512\nvalue = [156, 3356]"] ;
236 -> 237 ;
238 [label="gini = 0.0\nsamples = 54\nvalue = [54, 0]"] ;
237 -> 238 ;
239 [label="X[30] <= 0.5\ngini = 0.057\nsamples = 3458\nvalue = [102, 3356]"] ;
237 -> 239 ;
240 [label="gini = 0.0\nsamples = 38\nvalue = [38, 0]"] ;
239 -> 240 ;
241 [label="X[26] <= 1.5\ngini = 0.037\nsamples = 3420\nvalue = [64, 3356]"] ;
239 -> 241 ;
242 [label="X[35] <= 1.5\ngini = 0.019\nsamples = 3389\nvalue = [33, 3356]"] ;
241 -> 242 ;
243 [label="X[28] <= 0.5\ngini = 0.015\nsamples = 3382\nvalue = [26, 3356]"] ;
242 -> 243 ;
244 [label="gini = 0.0\nsamples = 6\nvalue = [6, 0]"] ;
243 -> 244 ;
245 [label="X[42] <= 1.5\ngini = 0.012\nsamples = 3376\nvalue = [20, 3356]"] ;
243 -> 245 ;
246 [label="X[34] <= 0.5\ngini = 0.009\nsamples = 3371\nvalue = [15, 3356]"] ;
245 -> 246 ;
247 [label="gini = 0.0\nsamples = 4\nvalue = [4, 0]"] ;
246 -> 247 ;
248 [label="X[33] <= 0.5\ngini = 0.007\nsamples = 3367\nvalue = [11, 3356]"] ;
246 -> 248 ;
249 [label="gini = 0.0\nsamples = 3\nvalue = [3, 0]"] ;
248 -> 249 ;
250 [label="X[38] <= 0.5\ngini = 0.005\nsamples = 3364\nvalue = [8, 3356]"] ;
248 -> 250 ;
251 [label="X[36] <= 1.5\ngini = 0.003\nsamples = 3361\nvalue = [5, 3356]"] ;
250 -> 251 ;
252 [label="X[26] <= 0.5\ngini = 0.002\nsamples = 3359\nvalue = [3, 3356]"] ;
251 -> 252 ;
253 [label="gini = 0.0\nsamples = 1\nvalue = [1, 0]"] ;
252 -> 253 ;
254 [label="X[25] <= 0.5\ngini = 0.001\nsamples = 3358\nvalue = [2, 3356]"] ;
252 -> 254 ;
255 [label="gini = 0.0\nsamples = 1\nvalue = [1, 0]"] ;
254 -> 255 ;
256 [label="X[27] <= 1.5\ngini = 0.001\nsamples = 3357\nvalue = [1, 3356]"] ;
254 -> 256 ;
257 [label="gini = 0.0\nsamples = 3356\nvalue = [0, 3356]"] ;
256 -> 257 ;
258 [label="gini = 0.0\nsamples = 1\nvalue = [1, 0]"] ;
256 -> 258 ;
259 [label="gini = 0.0\nsamples = 2\nvalue = [2, 0]"] ;
251 -> 259 ;
260 [label="gini = 0.0\nsamples = 3\nvalue = [3, 0]"] ;
250 -> 260 ;
261 [label="gini = 0.0\nsamples = 5\nvalue = [5, 0]"] ;
245 -> 261 ;
262 [label="gini = 0.0\nsamples = 7\nvalue = [7, 0]"] ;
242 -> 262 ;
263 [label="gini = 0.0\nsamples = 31\nvalue = [31, 0]"] ;
241 -> 263 ;
264 [label="gini = 0.0\nsamples = 68\nvalue = [68, 0]"] ;
236 -> 264 ;
265 [label="gini = 0.0\nsamples = 160\nvalue = [160, 0]"] ;
235 -> 265 ;
266 [label="gini = 0.0\nsamples = 325\nvalue = [325, 0]"] ;
234 -> 266 ;
267 [label="gini = 0.0\nsamples = 408\nvalue = [408, 0]"] ;
233 -> 267 ;
268 [label="gini = 0.0\nsamples = 481\nvalue = [481, 0]"] ;
232 -> 268 ;
269 [label="gini = 0.0\nsamples = 1236\nvalue = [1236, 0]"] ;
231 -> 269 ;
270 [label="gini = 0.0\nsamples = 1618\nvalue = [1618, 0]"] ;
230 -> 270 ;
271 [label="gini = 0.0\nsamples = 4739\nvalue = [4739, 0]"] ;
229 -> 271 ;
272 [label="gini = 0.0\nsamples = 9045\nvalue = [9045, 0]"] ;
4 -> 272 ;
}